time,window_index,r_w,is_singular,delta_w,b_w,delta_f_w,cost_val,opt_duration,angle_x,angle_y,angle_z,k_b_w,k_delta_w
1779635131.5081844,1,0.0194,1,0.0000,0.0000,0.0000,0.496065,0.2740,18.45,29.40,1.92,1.000000,1.000000
1779635131.857928,2,0.0193,1,0.0000,0.0000,0.0000,62.552341,0.2343,17.73,26.29,2.09,0.500000,0.500000
1779635132.1141682,3,0.0192,1,0.0000,0.0000,0.0000,39.651413,0.2401,16.02,22.85,2.27,0.333333,0.333333
1779635132.3443635,4,0.0194,1,0.0000,0.0000,0.0000,39.694482,0.1972,13.62,20.66,2.34,0.250000,0.250000
1779635132.6110127,5,0.0201,1,0.0000,0.0000,0.0000,39.658819,0.2105,12.41,21.15,2.27,0.200000,0.200000
1779635132.894499,6,0.0237,1,0.0000,0.0000,0.0000,39.628035,0.2229,12.63,21.84,2.22,0.166667,0.166667
1779635133.1782067,7,0.0360,1,0.0000,0.0000,0.0000,39.628294,0.2470,13.80,21.17,2.22,0.142857,0.159104
1779635133.4086204,8,0.0540,1,0.0000,0.0000,0.0000,14.648242,0.2060,14.69,18.60,2.29,0.125000,0.159104
1779635133.6978948,9,0.0763,1,0.0000,0.0000,0.0000,0.460725,0.2389,14.48,15.17,2.36,0.111111,0.159104
1779635133.9943063,10,0.0992,1,0.0000,0.0000,0.0000,0.364309,0.2536,13.78,12.87,2.33,0.100000,0.159104
1779635134.5260687,11,0.1436,0,-10.1934,-0.1331,-0.3629,0.158554,0.2521,13.85,13.64,1.93,0.090909,0.159104
1779635134.7507923,12,0.1664,0,-9.5077,-0.1217,-0.7236,0.149692,0.2155,13.74,13.82,1.69,0.083333,0.159104
1779635134.9839516,13,0.1894,0,-7.7395,-0.0942,-1.0264,0.140363,0.1963,13.56,13.61,1.45,0.076923,0.159104
1779635135.2562892,14,0.2105,0,-6.5233,-0.0745,-1.2824,0.120922,0.2026,12.93,13.05,1.24,0.071429,0.159104
1779635135.5287616,15,0.2283,0,-5.9330,-0.0644,-1.5134,0.090548,0.2032,12.25,11.98,1.09,0.066667,0.159104
1779635135.7846057,16,0.2419,0,-5.8960,-0.0628,-1.7425,0.068790,0.1904,11.95,10.40,1.01,0.062500,0.159104
1779635136.0730948,17,0.2516,0,-5.7367,-0.0595,-1.9595,0.047904,0.2316,10.13,9.11,0.91,0.058824,0.159104
1779635136.310393,18,0.2584,0,-5.4977,-0.0552,-2.1580,0.040865,0.1911,7.55,7.52,0.81,0.055556,0.159104
1779635136.5657709,19,0.2628,0,-5.3056,-0.0518,-2.3393,0.043077,0.1883,5.05,5.73,0.74,0.052632,0.159104
1779635136.802867,20,0.2642,0,-5.1563,-0.0492,-2.5048,0.048439,0.1660,2.14,3.79,0.67,0.050000,0.159104
1779635137.0913363,21,0.2628,0,-4.9491,-0.0460,-2.6510,0.059425,0.1858,-2.16,2.08,0.58,0.047619,0.159104
1779635137.3482635,22,0.2597,0,-4.6625,-0.0420,-2.7745,0.072242,0.1856,-7.04,1.04,0.46,0.045455,0.159104
1779635137.637536,23,0.2561,0,-4.0504,-0.0348,-2.8598,0.082588,0.2052,-11.90,1.43,0.28,0.043478,0.159104
1779635137.9309816,24,0.2518,0,-3.1256,-0.0247,-2.8941,0.056217,0.2284,-15.90,3.33,0.05,0.041667,0.159104
1779635138.193252,25,0.2474,0,-2.7266,-0.0205,-2.9072,0.034673,0.2256,-16.20,5.07,-0.04,0.040000,0.159104
1779635138.4384274,26,0.2434,0,-2.9723,-0.0226,-2.9315,0.054088,0.2016,-12.91,6.07,0.03,0.038462,0.159104
1779635138.7498822,27,0.2398,0,-3.6533,-0.0284,-2.9864,0.089557,0.2522,-9.01,5.81,0.19,0.037037,0.159104
1779635138.940162,28,0.2366,0,-4.8031,-0.0379,-3.0912,0.129098,0.1805,-4.35,4.23,0.44,0.035714,0.159104
1779635139.2128708,29,0.2341,0,-6.2503,-0.0493,-3.2563,0.145661,0.1865,1.89,2.27,0.73,0.034483,0.159104
1779635139.4770868,30,0.2321,0,-7.7906,-0.0608,-3.4824,0.133740,0.1831,8.24,0.14,1.02,0.033333,0.159104
1779635139.7729027,31,0.2301,0,-9.4360,-0.0726,-3.7703,0.088292,0.2219,14.56,-2.14,1.30,0.032258,0.159104
1779635140.054641,32,0.2290,0,-10.9211,-0.0827,-4.1105,0.034932,0.2393,20.35,-4.35,1.54,0.031250,0.159104
1779635140.350433,33,0.2283,0,-11.9549,-0.0893,-4.4815,0.016924,0.2679,24.02,-6.34,1.68,0.030303,0.159104
1779635140.852407,34,0.2251,0,-13.7178,-0.1004,-4.9090,0.023221,0.2293,22.97,-11.29,1.94,0.029412,0.159104
1779635141.087528,35,0.2245,0,-14.2019,-0.1028,-5.3401,0.023727,0.1971,20.19,-12.98,1.94,0.028571,0.159104
1779635141.3375757,36,0.2258,0,-13.7430,-0.0993,-5.7377,0.043978,0.1976,16.44,-12.71,1.77,0.027778,0.159104
1779635141.6014192,37,0.2281,0,-12.4763,-0.0909,-6.0698,0.118083,0.1887,12.93,-9.95,1.46,0.027027,0.159104
1779635141.9142463,38,0.2303,0,-6.9381,-0.0568,-6.1563,12.296506,0.2460,10.31,-4.95,1.11,0.026316,0.159104
1779635142.2125378,39,0.2316,0,-6.9381,-0.0564,-6.2394,62.294931,0.2796,9.11,2.31,0.75,0.025641,0.159104
1779635142.667252,40,0.2352,0,-6.6350,-0.0543,-6.3065,162.239394,0.2056,9.08,21.77,-0.04,0.025000,0.159104
1779635142.9644449,41,0.2377,0,-4.5362,-0.0418,-6.2798,209.165648,0.2442,11.30,32.55,-0.45,0.024390,0.159104
1779635143.2126255,42,0.2388,0,-2.2975,-0.0289,-6.1563,253.073985,0.2257,14.21,42.12,-0.81,0.023810,0.159104
1779635143.4534397,43,0.2374,0,-0.7869,-0.0204,-5.9731,299.022563,0.1996,17.36,48.46,-0.97,0.023256,0.159104
1779635143.758632,44,0.2340,0,-0.1469,-0.0169,-5.7724,349.011065,0.2352,20.95,52.19,-0.96,0.022727,0.159104
1779635143.9916835,45,0.2305,0,-0.1857,-0.0170,-5.5838,399.011877,0.2106,23.61,53.81,-0.88,0.022222,0.159104
1779635144.2447402,46,0.2278,0,-0.5616,-0.0187,-5.4199,400.012788,0.2059,23.89,53.24,-0.80,0.021739,0.159104
1779635144.5595503,47,0.2249,0,-0.9801,-0.0207,-5.2809,390.010297,0.2457,22.05,50.70,-0.73,0.021277,0.159104
1779635145.0373976,48,0.2189,0,-2.2263,-0.0262,-5.1999,295.008948,0.1946,15.66,40.49,-0.55,0.020833,0.159104
1779635145.2708755,49,0.2164,0,-3.6149,-0.0323,-5.1765,254.032727,0.1708,11.87,33.34,-0.32,0.020408,0.159104
1779635145.5632312,50,0.2150,0,-5.2228,-0.0390,-5.2157,214.076478,0.1993,7.80,26.15,-0.05,0.020000,0.159104
1779635145.8057227,51,0.2148,0,-7.1102,-0.0468,-5.3257,175.131368,0.1773,2.84,17.98,0.27,0.019608,0.159104
1779635146.0803833,52,0.2150,0,-9.2375,-0.0554,-5.5131,169.190957,0.1848,-2.18,8.62,0.65,0.019231,0.159104
1779635146.3505406,53,0.2154,0,-11.3758,-0.0639,-5.7757,168.230229,0.1950,-6.28,-1.11,1.05,0.018868,0.159104
1779635146.5965943,54,0.2163,0,-13.6324,-0.0727,-6.1163,163.224153,0.1662,-8.78,-10.46,1.44,0.018519,0.159104
1779635146.8808897,55,0.2179,0,-15.3592,-0.0792,-6.5133,100.164488,0.1808,-10.57,-17.97,1.74,0.018182,0.159104
1779635147.181909,56,0.2194,0,-16.4775,-0.0833,-6.9414,57.096013,0.2156,-11.84,-22.53,1.87,0.017857,0.159104
1779635147.460752,57,0.2203,0,-16.1516,-0.0817,-7.3431,72.116021,0.2317,-12.81,-22.90,1.75,0.017544,0.159104
1779635147.6717813,58,0.2201,0,-14.7637,-0.0761,-7.6764,118.201852,0.1725,-13.39,-19.89,1.45,0.017241,0.159104
1779635147.9757686,59,0.2185,0,-13.0542,-0.0695,-7.9304,140.275310,0.1996,-12.87,-14.03,1.05,0.016949,0.159104
1779635148.2619715,60,0.2157,0,-11.0484,-0.0621,-8.0974,171.287508,0.2169,-10.68,-5.70,0.60,0.016667,0.159104
1779635148.5452173,61,0.2123,0,-8.2530,-0.0521,-8.1530,175.239879,0.2375,-6.56,4.17,0.15,0.016393,0.159104
1779635148.8418045,62,0.2085,0,-7.2608,-0.0486,-8.1704,175.151904,0.2655,-1.40,14.64,-0.29,0.016129,0.159104
1779635149.381994,63,0.1993,0,-3.1670,-0.0355,-8.0461,208.023356,0.2580,9.55,34.71,-0.87,0.015873,0.159104
1779635149.8841665,64,0.1894,0,-0.9291,-0.0288,-7.8596,300.009305,0.2422,18.69,48.87,-1.03,0.015625,0.159104
1779635150.1188757,65,0.1843,0,-0.5113,-0.0275,-7.6709,350.008428,0.2035,22.37,53.44,-0.97,0.015385,0.159104
1779635150.3503616,66,0.1796,0,-0.6033,-0.0277,-7.4958,400.012529,0.1713,25.42,56.63,-0.84,0.015152,0.159104
1779635150.6943219,67,0.1767,0,-1.1522,-0.0291,-7.3457,400.025021,0.2466,26.96,59.12,-0.67,0.014925,0.159104
1779635150.9299119,68,0.1770,0,-1.5438,-0.0300,-7.2115,400.029673,0.2192,27.47,62.12,-0.55,0.014706,0.159104
1779635151.2165668,69,0.1800,0,-1.5554,-0.0300,-7.0786,400.032672,0.2349,20.14,65.82,-0.51,0.014493,0.159104
1779635151.4086566,70,0.1833,0,-1.8472,-0.0307,-6.9558,400.036885,0.1684,-0.99,68.53,-0.46,0.014286,0.159104
1779635151.6812315,71,0.1863,0,-2.9475,-0.0335,-6.8695,400.032744,0.1697,-22.04,70.10,-0.31,0.014085,0.159104
1779635151.9802294,72,0.1896,0,-4.6336,-0.0378,-6.8387,400.024048,0.2100,-42.77,71.10,-0.09,0.013889,0.159104
1779635152.2469301,73,0.1936,0,-4.7937,-0.0381,-6.8126,400.029984,0.2098,-64.06,72.08,0.11,0.013699,0.159104
1779635152.5462348,74,0.1979,0,-3.6017,-0.0348,-6.7453,400.034294,0.2457,-86.24,73.63,0.20,0.013514,0.159104
1779635152.7683885,75,0.2019,0,0.3753,-0.0240,-6.5398,400.025316,0.1928,-96.48,76.21,0.11,0.013333,0.159104
1779635153.045172,76,0.2040,0,4.7309,-0.0123,-6.1859,400.013436,0.2040,-96.28,75.93,-0.03,0.013158,0.159104
1779635153.296331,77,0.2040,0,1.0346,-0.0220,-5.9728,377.019563,0.1881,-90.07,70.84,-0.06,0.012987,0.159104
1779635153.6124024,78,0.2039,0,-2.7737,-0.0319,-5.9000,334.040358,0.2474,-69.12,63.26,0.04,0.012821,0.159104
1779635153.9208024,79,0.2033,0,-5.7623,-0.0396,-5.9338,290.078590,0.2889,-49.01,54.73,0.19,0.012658,0.159104
1779635154.4378932,80,0.1995,0,-5.9464,-0.0399,-5.9728,190.183826,0.2656,-11.26,35.25,0.50,0.012500,0.159104
1779635154.8995743,81,0.1936,0,-13.4401,-0.0577,-6.2588,120.219749,0.1900,11.09,8.76,1.12,0.012346,0.159104
1779635155.167704,82,0.1901,0,-15.7937,-0.0631,-6.6083,87.227492,0.1863,6.30,-3.97,1.57,0.012195,0.159104
1779635155.4748046,83,0.1872,0,-18.3922,-0.0688,-7.0260,19.171441,0.2283,1.54,-13.40,2.00,0.012048,0.159104
1779635155.7685807,84,0.1848,0,-21.0075,-0.0744,-7.5094,0.108966,0.2521,-2.56,-19.84,2.31,0.011905,0.159104
1779635156.2534604,85,0.1835,0,-24.4842,-0.0817,-8.0844,0.033503,0.2110,-6.40,-27.64,2.66,0.011765,0.159104
1779635156.5226462,86,0.1844,0,-24.9455,-0.0825,-8.6593,0.017903,0.2053,-6.28,-28.54,2.65,0.011628,0.159104
1779635156.8549569,87,0.1852,0,-24.3565,-0.0811,-9.2007,0.038085,0.2754,-4.64,-26.88,2.50,0.011494,0.159104
1779635157.3275073,88,0.1843,0,-20.8579,-0.0736,-9.6139,5.146307,0.2052,-0.61,-16.71,1.88,0.011364,0.159104
1779635157.5804286,89,0.1821,0,-18.3959,-0.0684,-9.9348,46.197113,0.2009,1.87,-8.45,1.40,0.011236,0.159104
1779635157.8472612,90,0.1798,0,-16.3266,-0.0642,-10.1799,90.214875,0.1907,4.93,0.81,0.92,0.011111,0.159104
1779635158.1339402,91,0.1779,0,-13.6835,-0.0589,-10.3363,148.194035,0.2107,8.40,10.47,0.43,0.010989,0.159104
1779635158.3817604,92,0.1764,0,-10.9541,-0.0535,-10.4056,169.146447,0.2042,12.25,19.85,-0.02,0.010870,0.159104
1779635158.6859646,93,0.1752,0,-8.3644,-0.0485,-10.3959,210.093674,0.2151,15.82,28.26,-0.40,0.010753,0.159104
1779635158.9712927,94,0.1745,0,-6.0702,-0.0442,-10.3188,248.046743,0.2459,18.95,35.52,-0.69,0.010638,0.159104
1779635159.1733274,95,0.1746,0,-4.3324,-0.0409,-10.1923,282.015569,0.1801,21.82,41.16,-0.87,0.010526,0.159104
1779635159.4681954,96,0.1748,0,-3.1963,-0.0388,-10.0354,324.003361,0.1981,23.10,45.20,-0.97,0.010417,0.159104
1779635159.7373152,97,0.1747,0,-2.3881,-0.0372,-9.8590,359.005297,0.2073,21.38,47.42,-1.04,0.010309,0.159104
1779635159.9987602,98,0.1746,0,-1.1263,-0.0349,-9.6504,397.019072,0.1881,16.73,48.34,-1.15,0.010204,0.159104
1779635160.265914,99,0.1744,0,-0.2578,-0.0333,-9.4222,400.029331,0.2003,10.95,48.43,-1.27,0.010101,0.159104
1779635160.5716102,100,0.1738,0,1.3659,-0.0305,-9.1536,357.033718,0.2239,4.57,48.07,-1.38,0.010000,0.159104
1779635160.8477263,101,0.1724,0,2.4057,-0.0286,-8.8643,282.032597,0.2391,-2.04,47.68,-1.47,0.009901,0.159104
1779635161.1645303,102,0.1711,0,3.6500,-0.0265,-8.5495,202.028081,0.2810,-8.55,47.11,-1.56,0.009804,0.159104
1779635161.6653595,103,0.1709,0,4.3704,-0.0253,-8.2228,96.020452,0.2367,-15.98,46.17,-1.64,0.009709,0.159104
1779635161.938905,104,0.1726,0,3.2068,-0.0271,-7.9354,91.038528,0.2435,-12.25,45.09,-1.51,0.009615,0.159104
1779635162.1512828,105,0.1745,0,1.9261,-0.0292,-7.6900,119.047761,0.1944,-7.49,44.26,-1.33,0.009524,0.159104
1779635162.4157417,106,0.1761,0,0.4649,-0.0316,-7.4922,340.048595,0.1812,-1.96,43.83,-1.15,0.009434,0.159104
1779635162.7032294,107,0.1775,0,-0.8766,-0.0338,-7.3382,382.045936,0.2051,3.99,43.47,-0.96,0.009346,0.159104
1779635162.9591727,108,0.1793,0,-2.0023,-0.0356,-7.2205,382.036943,0.1941,10.35,42.91,-0.77,0.009259,0.159104
1779635163.209697,109,0.1808,0,-3.2474,-0.0376,-7.1427,393.021764,0.1719,16.12,42.37,-0.59,0.009174,0.159104
1779635163.5029495,110,0.1810,0,-4.3089,-0.0393,-7.0993,400.004517,0.1875,21.18,41.63,-0.42,0.009091,0.159104
1779635163.76201,111,0.1802,0,-4.7846,-0.0400,-7.0718,379.001586,0.1782,23.43,40.77,-0.34,0.009009,0.159104
1779635164.034618,112,0.1794,0,-5.2489,-0.0407,-7.0592,351.005129,0.1832,23.37,39.27,-0.28,0.008929,0.159104
1779635164.3438334,113,0.1786,0,-6.4562,-0.0425,-7.0834,310.020740,0.2135,24.45,35.89,-0.12,0.008850,0.159104
1779635164.6195776,114,0.1776,0,-7.7554,-0.0445,-7.1456,260.041032,0.2081,24.85,30.84,0.09,0.008772,0.159104
1779635164.886021,115,0.1770,0,-7.7551,-0.0444,-7.2059,210.063882,0.2143,24.97,25.78,0.30,0.008696,0.159104
1779635165.2199817,116,0.1764,0,-7.7553,-0.0443,-7.2645,160.078408,0.2608,24.82,21.30,0.47,0.008621,0.159104
1779635165.693323,117,0.1755,0,-7.7554,-0.0443,-7.3212,60.077382,0.2125,26.33,15.93,0.63,0.008547,0.159104
1779635165.977676,118,0.1757,0,-7.7554,-0.0442,-7.3763,10.076202,0.2141,27.05,13.91,0.67,0.008475,0.159104
1779635166.2890494,119,0.1757,0,-11.4021,-0.0495,-7.5370,0.028211,0.2569,27.44,12.86,0.65,0.008403,0.159104
1779635166.5824883,120,0.1755,0,-10.9752,-0.0488,-7.6805,0.030966,0.2785,27.80,13.70,0.55,0.008333,0.159104
1779635167.001878,121,0.1748,0,-9.3972,-0.0465,-7.7734,0.012151,0.1756,29.02,18.61,0.27,0.008264,0.159104
1779635167.2884207,122,0.1746,0,-8.6872,-0.0454,-7.8429,0.001575,0.1884,29.37,20.74,0.14,0.008197,0.159104
1779635167.5694733,123,0.1748,0,-8.4326,-0.0450,-7.9030,0.000111,0.2052,29.42,21.48,0.09,0.008130,0.159104
1779635167.815757,124,0.1752,0,-8.1198,-0.0445,-7.9523,11.002678,0.1855,29.45,22.63,0.03,0.008065,0.159104
1779635168.118992,125,0.1756,0,-7.5408,-0.0436,-7.9832,61.016613,0.2337,29.51,26.53,-0.11,0.008000,0.159104
1779635168.3522568,126,0.1754,0,-7.1859,-0.0430,-8.0028,108.029190,0.2084,26.26,34.00,-0.24,0.007937,0.159104
1779635168.5941322,127,0.1753,0,-6.9866,-0.0427,-8.0159,158.031840,0.1753,4.89,41.17,-0.29,0.007874,0.159104
1779635168.9182847,128,0.1756,0,-6.5539,-0.0420,-8.0160,208.031458,0.2208,-17.01,46.51,-0.27,0.007812,0.159104
1779635169.159639,129,0.1757,0,-5.7006,-0.0408,-7.9909,258.032038,0.1966,-38.89,51.12,-0.20,0.007752,0.159104
1779635169.464209,130,0.1753,0,-4.2882,-0.0389,-7.9254,302.031189,0.2422,-60.70,55.40,-0.12,0.007692,0.159104
1779635169.58146,131,0.1747,0,-1.6489,-0.0353,-7.7853,343.024591,0.0979,-82.41,59.12,0.01,0.007634,0.159104
1779635170.042086,132,0.1744,0,2.5164,-0.0297,-7.5284,387.011701,0.2910,-104.04,61.44,0.20,0.007576,0.159104
1779635170.579704,133,0.1772,0,7.2156,-0.0234,-7.1355,400.005571,0.2975,-145.44,56.86,0.78,0.007519,0.159104
1779635171.0982502,134,0.1846,0,7.4989,-0.0230,-6.7281,400.002867,0.2821,-146.32,50.92,1.16,0.007463,0.159104
1779635171.5975637,135,0.1942,0,8.0406,-0.0222,-6.2934,400.000884,0.2464,-146.41,48.72,1.36,0.007407,0.159104
1779635171.861748,136,0.1994,0,8.2071,-0.0219,-5.8546,400.000456,0.2400,-146.46,48.58,1.39,0.007353,0.159104
1779635172.1040478,137,0.2040,0,8.2180,-0.0219,-5.4189,400.000417,0.2179,-146.50,48.92,1.38,0.007299,0.159104
1779635172.3460393,138,0.2069,0,8.0239,-0.0221,-4.9979,400.000547,0.1988,-146.51,49.31,1.33,0.007246,0.159104
1779635172.7044637,139,0.2079,0,7.7529,-0.0225,-4.5979,400.000282,0.2795,-146.54,49.75,1.27,0.007194,0.159104
1779635173.1916895,140,0.2063,0,7.2670,-0.0232,-4.2310,400.001356,0.2453,-137.16,55.26,0.99,0.007143,0.159104
1779635173.4689496,141,0.2029,0,4.9461,-0.0265,-3.9603,400.016814,0.2522,-114.53,56.92,0.79,0.007092,0.159104
1779635173.724483,142,0.1976,0,1.2678,-0.0316,-3.8265,366.058209,0.2445,-92.22,55.05,0.71,0.007042,0.159104
1779635173.939687,143,0.1919,0,-3.1916,-0.0375,-3.8435,325.128853,0.1992,-70.23,49.49,0.79,0.006993,0.159104
1779635174.2164094,144,0.1865,0,-8.1024,-0.0438,-4.0125,286.219851,0.2169,-48.66,40.78,1.02,0.006944,0.159104
1779635174.495042,145,0.1827,0,-13.2601,-0.0503,-4.3301,265.285834,0.2186,-27.53,30.39,1.33,0.006897,0.159104
1779635174.769471,146,0.1798,0,-18.4177,-0.0566,-4.7882,200.241633,0.2428,-6.16,20.23,1.61,0.006849,0.159104
1779635175.0146568,147,0.1768,0,-22.3283,-0.0612,-5.3411,152.171290,0.2223,14.82,9.23,1.90,0.006803,0.159104
1779635175.2849348,148,0.1739,0,-22.6975,-0.0616,-5.8811,102.165804,0.2272,28.28,-3.76,2.25,0.006757,0.159104
1779635175.555365,149,0.1703,0,-23.5593,-0.0625,-6.4210,58.125147,0.2288,28.05,-12.36,2.52,0.006711,0.159104
1779635175.827624,150,0.1642,0,-24.7160,-0.0637,-6.9609,10.065222,0.2359,27.98,-15.52,2.65,0.006667,0.159104
1779635176.1465962,151,0.1545,0,-26.3321,-0.0653,-7.5008,58.031488,0.2824,28.09,-13.29,2.64,0.006623,0.159104
1779635176.685521,152,0.1284,0,-14.2341,-0.0550,-7.6922,41.386549,0.3042,28.56,-0.27,2.38,0.006579,0.159104
1779635177.15545,153,0.0937,1,-7.7472,-0.0550,-7.7472,16.442655,0.2450,29.24,15.16,2.04,0.006536,0.159104
1779635177.4668791,154,0.0715,1,-7.8022,-0.0550,-7.8022,0.392317,0.2848,29.55,22.33,1.91,0.006494,0.159104
1779635178.028484,155,0.0295,1,-7.8572,-0.0550,-7.8572,0.433693,0.3244,29.69,29.48,1.94,0.006452,0.159104
1779635178.5892131,156,0.0207,1,-7.9122,-0.0550,-7.9122,0.523418,0.3566,29.60,28.59,2.10,0.006410,0.159104
1779635178.9797204,157,0.0199,1,-7.9672,-0.0550,-7.9672,0.685580,0.2202,29.54,24.08,2.37,0.006369,0.159104
1779635179.2655234,158,0.0198,1,-8.0222,-0.0550,-8.0222,0.798991,0.2327,29.44,20.92,2.55,0.006329,0.159104
1779635179.5212395,159,0.0197,1,-8.0772,-0.0550,-8.0772,0.917190,0.2244,29.32,17.39,2.74,0.006289,0.159104
1779635179.7895021,160,0.0197,1,-8.1322,-0.0550,-8.1322,1.022195,0.2231,29.18,13.81,2.94,0.006250,0.159104
1779635180.0698469,161,0.0197,1,-8.1872,-0.0550,-8.1872,1.106942,0.2440,29.05,10.53,3.12,0.006211,0.159104
1779635180.330133,162,0.0196,1,-8.2422,-0.0550,-8.2422,1.156767,0.2341,28.94,7.76,3.26,0.006173,0.159104
1779635180.6151085,163,0.0196,1,-8.2972,-0.0550,-8.2972,1.183783,0.2510,28.85,5.55,3.38,0.006135,0.159104
1779635180.8909104,164,0.0196,1,-8.3522,-0.0550,-8.3522,1.186408,0.2639,28.77,3.91,3.46,0.006098,0.159104
1779635181.2088523,165,0.0196,1,-8.4072,-0.0550,-8.4072,1.169901,0.3074,28.72,2.82,3.51,0.006061,0.159104
1779635181.6711497,166,0.0196,1,-8.4623,-0.0550,-8.4623,1.109990,0.2507,28.67,1.90,3.53,0.006024,0.159104
1779635181.9692082,167,0.0196,1,-8.5173,-0.0550,-8.5173,1.081323,0.2832,28.66,1.89,3.52,0.005988,0.159104
1779635182.4868035,168,0.0197,1,-8.5723,-0.0550,-8.5723,1.055761,0.2864,28.66,1.97,3.49,0.005952,0.159104
